{
    "version": "v2",
    "feature_names": [
        "feature_0",
        "feature_1",
        "feature_2",
        "feature_3",
        "feature_4",
        "feature_5",
        "feature_6",
        "feature_7",
        "feature_8",
        "feature_9",
        "feature_10",
        "feature_11",
        "feature_12",
        "feature_13",
        "feature_14",
        "feature_15",
        "feature_16",
        "feature_17",
        "feature_18",
        "feature_19",
        "feature_20",
        "feature_21",
        "feature_22",
        "feature_23",
        "feature_24",
        "feature_25",
        "feature_26",
        "feature_27"
    ],
    "tree_info": [
        {
            "num_cat": 0,
            "tree_index": 0,
            "num_leaves": 31,
            "shrinkage": 1,
            "tree_structure": {
                "default_left": true,
                "missing_type": "None",
                "split_gain": 266.46099853515625,
                "internal_value": 0,
                "internal_count": 5600,
                "decision_type": "<=",
                "split_index": 0,
                "threshold": 1.2045000000000001,
                "split_feature": 25,
                "right_child": {
                    "default_left": true,
                    "missing_type": "None",
                    "split_gain": 29.663400650024414,
                    "internal_value": -0.814029,
                    "internal_count": 1216,
                    "decision_type": "<=",
                    "split_index": 8,
                    "threshold": 1.8325000000000002,
                    "split_feature": 25,
                    "right_child": {
                        "leaf_value": 0.05740236977280788,
                        "leaf_count": 333,
                        "leaf_index": 9
                    },
                    "left_child": {
                        "default_left": true,
                        "missing_type": "None",
                        "split_gain": 25.40920066833496,
                        "internal_value": -0.621833,
                        "internal_count": 883,
                        "decision_type": "<=",
                        "split_index": 9,
                        "threshold": 1.0545000000000002,
                        "split_feature": 22,
                        "right_child": {
                            "leaf_value": 0.11894692045622379,
                            "leaf_count": 258,
                            "leaf_index": 10
                        },
                        "left_child": {
                            "default_left": true,
                            "missing_type": "None",
                            "split_gain": 25.388700485229492,
                            "internal_value": -0.840229,
                            "internal_count": 625,
                            "decision_type": "<=",
                            "split_index": 10,
                            "threshold": 0.9615000000000001,
                            "split_feature": 27,
                            "right_child": {
                                "default_left": true,
                                "missing_type": "None",
                                "split_gain": 20.111499786376953,
                                "internal_value": -1.30182,
                                "internal_count": 271,
                                "decision_type": "<=",
                                "split_index": 13,
                                "threshold": 0.7525000000000001,
                                "split_feature": 22,
                                "right_child": {
                                    "leaf_value": 0.04922976816328009,
                                    "leaf_count": 243,
                                    "leaf_index": 14
                                },
                                "left_child": {
                                    "leaf_value": 0.13890110332917907,
                                    "leaf_count": 28,
                                    "leaf_index": 11
                                }
                            },
                            "left_child": {
                                "default_left": true,
                                "missing_type": "None",
                                "split_gain": 17.949600219726562,
                                "internal_value": -0.486865,
                                "internal_count": 354,
                                "decision_type": "<=",
                                "split_index": 17,
                                "threshold": 0.8965000000000001,
                                "split_feature": 5,
                                "right_child": {
                                    "leaf_value": 0.11836519102611735,
                                    "leaf_count": 206,
                                    "leaf_index": 18
                                },
                                "left_child": {
                                    "default_left": true,
                                    "missing_type": "None",
                                    "split_gain": 15.497900009155273,
                                    "internal_value": -1.0192,
                                    "internal_count": 148,
                                    "decision_type": "<=",
                                    "split_index": 20,
                                    "threshold": 0.9265000000000001,
                                    "split_feature": 9,
                                    "right_child": {
                                        "default_left": true,
                                        "missing_type": "None",
                                        "split_gain": 12.946800231933594,
                                        "internal_value": -0.388064,
                                        "internal_count": 76,
                                        "decision_type": "<=",
                                        "split_index": 27,
                                        "threshold": -0.1185,
                                        "split_feature": 10,
                                        "right_child": {
                                            "leaf_value": 0.06597526874225855,
                                            "leaf_count": 41,
                                            "leaf_index": 28
                                        },
                                        "left_child": {
                                            "leaf_value": 0.1489393357159638,
                                            "leaf_count": 35,
                                            "leaf_index": 21
                                        }
                                    },
                                    "left_child": {
                                        "leaf_value": 0.03931546457139393,
                                        "leaf_count": 72,
                                        "leaf_index": 1
                                    }
                                }
                            }
                        }
                    }
                },
                "left_child": {
                    "default_left": true,
                    "missing_type": "None",
                    "split_gain": 163.77099609375,
                    "internal_value": 0.246122,
                    "internal_count": 4384,
                    "decision_type": "<=",
                    "split_index": 1,
                    "threshold": 0.6175,
                    "split_feature": 25,
                    "right_child": {
                        "default_left": true,
                        "missing_type": "None",
                        "split_gain": 92.28119659423828,
                        "internal_value": 0.46823,
                        "internal_count": 3299,
                        "decision_type": "<=",
                        "split_index": 2,
                        "threshold": 0.8695000000000002,
                        "split_feature": 5,
                        "right_child": {
                            "default_left": true,
                            "missing_type": "None",
                            "split_gain": 100.69599914550781,
                            "internal_value": 0.803267,
                            "internal_count": 1650,
                            "decision_type": "<=",
                            "split_index": 3,
                            "threshold": 0.9025000000000002,
                            "split_feature": 27,
                            "right_child": {
                                "default_left": true,
                                "missing_type": "None",
                                "split_gain": 33.82460021972656,
                                "internal_value": 0.281737,
                                "internal_count": 782,
                                "decision_type": "<=",
                                "split_index": 7,
                                "threshold": 1.7305000000000004,
                                "split_feature": 0,
                                "right_child": {
                                    "default_left": true,
                                    "missing_type": "None",
                                    "split_gain": 13.776700019836426,
                                    "internal_value": -0.618538,
                                    "internal_count": 138,
                                    "decision_type": "<=",
                                    "split_index": 24,
                                    "threshold": 1.0755000000000001,
                                    "split_feature": 24,
                                    "right_child": {
                                        "default_left": true,
                                        "missing_type": "None",
                                        "split_gain": 15.901300430297852,
                                        "internal_value": -0.0123646,
                                        "internal_count": 72,
                                        "decision_type": "<=",
                                        "split_index": 25,
                                        "threshold": 1.4775000000000003,
                                        "split_feature": 24,
                                        "right_child": {
                                            "leaf_value": 0.06881851316337775,
                                            "leaf_count": 31,
                                            "leaf_index": 26
                                        },
                                        "left_child": {
                                            "leaf_value": 0.16390924324747552,
                                            "leaf_count": 41,
                                            "leaf_index": 25
                                        }
                                    },
                                    "left_child": {
                                        "leaf_value": 0.059594721918433805,
                                        "leaf_count": 66,
                                        "leaf_index": 8
                                    }
                                },
                                "left_child": {
                                    "default_left": true,
                                    "missing_type": "None",
                                    "split_gain": 21.06089973449707,
                                    "internal_value": 0.474653,
                                    "internal_count": 644,
                                    "decision_type": "<=",
                                    "split_index": 12,
                                    "threshold": 2.6165000000000007,
                                    "split_feature": 3,
                                    "right_child": {
                                        "leaf_value": 0.05716121103678902,
                                        "leaf_count": 25,
                                        "leaf_index": 13
                                    },
                                    "left_child": {
                                        "default_left": true,
                                        "missing_type": "None",
                                        "split_gain": 19.104799270629883,
                                        "internal_value": 0.547477,
                                        "internal_count": 619,
                                        "decision_type": "<=",
                                        "split_index": 16,
                                        "threshold": 0.9895000000000002,
                                        "split_feature": 25,
                                        "right_child": {
                                            "leaf_value": 0.12471014980619469,
                                            "leaf_count": 192,
                                            "leaf_index": 17
                                        },
                                        "left_child": {
                                            "leaf_value": 0.1627624753961264,
                                            "leaf_count": 427,
                                            "leaf_index": 4
                                        }
                                    }
                                }
                            },
                            "left_child": {
                                "default_left": true,
                                "missing_type": "None",
                                "split_gain": 14.254400253295898,
                                "internal_value": 1.27313,
                                "internal_count": 868,
                                "decision_type": "<=",
                                "split_index": 22,
                                "threshold": 0.8565000000000002,
                                "split_feature": 26,
                                "right_child": {
                                    "leaf_value": 0.19603191830303615,
                                    "leaf_count": 591,
                                    "leaf_index": 23
                                },
                                "left_child": {
                                    "default_left": true,
                                    "missing_type": "None",
                                    "split_gain": 17.1200008392334,
                                    "internal_value": 0.898042,
                                    "internal_count": 277,
                                    "decision_type": "<=",
                                    "split_index": 23,
                                    "threshold": 0.8425000000000001,
                                    "split_feature": 25,
                                    "right_child": {
                                        "default_left": true,
                                        "missing_type": "None",
                                        "split_gain": 13.599200248718262,
                                        "internal_value": 0.270124,
                                        "internal_count": 107,
                                        "decision_type": "<=",
                                        "split_index": 26,
                                        "threshold": 1.1865000000000003,
                                        "split_feature": 0,
                                        "right_child": {
                                            "leaf_value": 0.06480938809338692,
                                            "leaf_count": 21,
                                            "leaf_index": 27
                                        },
                                        "left_child": {
                                            "leaf_value": 0.15474216772692906,
                                            "leaf_count": 86,
                                            "leaf_index": 24
                                        }
                                    },
                                    "left_child": {
                                        "leaf_value": 0.18824871632303683,
                                        "leaf_count": 170,
                                        "leaf_index": 3
                                    }
                                }
                            }
                        },
                        "left_child": {
                            "default_left": true,
                            "missing_type": "None",
                            "split_gain": 85.54399871826172,
                            "internal_value": 0.132991,
                            "internal_count": 1649,
                            "decision_type": "<=",
                            "split_index": 4,
                            "threshold": 0.7765000000000001,
                            "split_feature": 26,
                            "right_child": {
                                "default_left": true,
                                "missing_type": "None",
                                "split_gain": 59.44729995727539,
                                "internal_value": 0.363867,
                                "internal_count": 1313,
                                "decision_type": "<=",
                                "split_index": 5,
                                "threshold": 0.9655000000000001,
                                "split_feature": 25,
                                "right_child": {
                                    "leaf_value": 0.10655387721267304,
                                    "leaf_count": 352,
                                    "leaf_index": 6
                                },
                                "left_child": {
                                    "default_left": true,
                                    "missing_type": "None",
                                    "split_gain": 40.56779861450195,
                                    "internal_value": 0.621916,
                                    "internal_count": 961,
                                    "decision_type": "<=",
                                    "split_index": 6,
                                    "threshold": 0.9045000000000002,
                                    "split_feature": 27,
                                    "right_child": {
                                        "default_left": true,
                                        "missing_type": "None",
                                        "split_gain": 15.083800315856934,
                                        "internal_value": 0.0392208,
                                        "internal_count": 320,
                                        "decision_type": "<=",
                                        "split_index": 21,
                                        "threshold": 1.3345000000000002,
                                        "split_feature": 3,
                                        "right_child": {
                                            "leaf_value": 0.09280717910414708,
                                            "leaf_count": 98,
                                            "leaf_index": 22
                                        },
                                        "left_child": {
                                            "leaf_value": 0.1399992368592649,
                                            "leaf_count": 222,
                                            "leaf_index": 7
                                        }
                                    },
                                    "left_child": {
                                        "default_left": true,
                                        "missing_type": "None",
                                        "split_gain": 19.661800384521484,
                                        "internal_value": 0.912809,
                                        "internal_count": 641,
                                        "decision_type": "<=",
                                        "split_index": 14,
                                        "threshold": 0.8695000000000002,
                                        "split_feature": 26,
                                        "right_child": {
                                            "leaf_value": 0.18477818210443683,
                                            "leaf_count": 359,
                                            "leaf_index": 15
                                        },
                                        "left_child": {
                                            "default_left": true,
                                            "missing_type": "None",
                                            "split_gain": 24.027999877929688,
                                            "internal_value": 0.516838,
                                            "internal_count": 282,
                                            "decision_type": "<=",
                                            "split_index": 15,
                                            "threshold": 0.7995000000000002,
                                            "split_feature": 27,
                                            "right_child": {
                                                "leaf_value": 0.09901074324084935,
                                                "leaf_count": 71,
                                                "leaf_index": 16
                                            },
                                            "left_child": {
                                                "leaf_value": 0.16639240326455096,
                                                "leaf_count": 211,
                                                "leaf_index": 5
                                            }
                                        }
                                    }
                                }
                            },
                            "left_child": {
                                "default_left": true,
                                "missing_type": "None",
                                "split_gain": 17.783899307250977,
                                "internal_value": -0.769215,
                                "internal_count": 336,
                                "decision_type": "<=",
                                "split_index": 18,
                                "threshold": 0.6415000000000001,
                                "split_feature": 24,
                                "right_child": {
                                    "leaf_value": 0.07416026150200114,
                                    "leaf_count": 274,
                                    "leaf_index": 19
                                },
                                "left_child": {
                                    "leaf_value": 0.13358130275553737,
                                    "leaf_count": 62,
                                    "leaf_index": 2
                                }
                            }
                        }
                    },
                    "left_child": {
                        "default_left": true,
                        "missing_type": "None",
                        "split_gain": 24.138700485229492,
                        "internal_value": -0.429211,
                        "internal_count": 1085,
                        "decision_type": "<=",
                        "split_index": 11,
                        "threshold": 1.0365000000000002,
                        "split_feature": 9,
                        "right_child": {
                            "default_left": true,
                            "missing_type": "None",
                            "split_gain": 12.029800415039062,
                            "internal_value": 0.117017,
                            "internal_count": 250,
                            "decision_type": "<=",
                            "split_index": 29,
                            "threshold": 0.8265000000000001,
                            "split_feature": 27,
                            "right_child": {
                                "leaf_value": 0.10797976249488678,
                                "leaf_count": 128,
                                "leaf_index": 30
                            },
                            "left_child": {
                                "leaf_value": 0.15194845455790396,
                                "leaf_count": 122,
                                "leaf_index": 12
                            }
                        },
                        "left_child": {
                            "default_left": true,
                            "missing_type": "None",
                            "split_gain": 17.105499267578125,
                            "internal_value": -0.592752,
                            "internal_count": 835,
                            "decision_type": "<=",
                            "split_index": 19,
                            "threshold": 1.6175000000000004,
                            "split_feature": 3,
                            "right_child": {
                                "leaf_value": 0.05944633710857741,
                                "leaf_count": 123,
                                "leaf_index": 20
                            },
                            "left_child": {
                                "default_left": true,
                                "missing_type": "None",
                                "split_gain": 12.652199745178223,
                                "internal_value": -0.473547,
                                "internal_count": 712,
                                "decision_type": "<=",
                                "split_index": 28,
                                "threshold": 1.3085000000000002,
                                "split_feature": 13,
                                "right_child": {
                                    "leaf_value": 0.14100997567934392,
                                    "leaf_count": 68,
                                    "leaf_index": 29
                                },
                                "left_child": {
                                    "leaf_value": 0.09556836103840022,
                                    "leaf_count": 644,
                                    "leaf_index": 0
                                }
                            }
                        }
                    }
                }
            }
        },
        {
            "num_cat": 0,
            "tree_index": 1,
            "num_leaves": 31,
            "shrinkage": 0.05,
            "tree_structure": {
                "default_left": true,
                "missing_type": "None",
                "split_gain": 241.6999969482422,
                "internal_value": 0,
                "internal_count": 5600,
                "decision_type": "<=",
                "split_index": 0,
                "threshold": 1.0675000000000001,
                "split_feature": 25,
                "right_child": {
                    "default_left": true,
                    "missing_type": "None",
                    "split_gain": 39.420101165771484,
                    "internal_value": -0.640902,
                    "internal_count": 1605,
                    "decision_type": "<=",
                    "split_index": 5,
                    "threshold": 1.8325000000000002,
                    "split_feature": 25,
                    "right_child": {
                        "leaf_value": -0.06268069780328002,
                        "leaf_count": 333,
                        "leaf_index": 6
                    },
                    "left_child": {
                        "default_left": true,
                        "missing_type": "None",
                        "split_gain": 36.56439971923828,
                        "internal_value": -0.480159,
                        "internal_count": 1272,
                        "decision_type": "<=",
                        "split_index": 6,
                        "threshold": 1.0375000000000003,
                        "split_feature": 22,
                        "right_child": {
                            "default_left": true,
                            "missing_type": "None",
                            "split_gain": 13.529500007629395,
                            "internal_value": 0.00893546,
                            "internal_count": 414,
                            "decision_type": "<=",
                            "split_index": 15,
                            "threshold": 1.3295000000000001,
                            "split_feature": 24,
                            "right_child": {
                                "leaf_value": 0.034090039530450277,
                                "leaf_count": 93,
                                "leaf_index": 16
                            },
                            "left_child": {
                                "default_left": true,
                                "missing_type": "None",
                                "split_gain": 20.33340072631836,
                                "internal_value": -0.186028,
                                "internal_count": 321,
                                "decision_type": "<=",
                                "split_index": 16,
                                "threshold": 1.0880000000000003,
                                "split_feature": 2,
                                "right_child": {
                                    "leaf_value": 0.044970470476595144,
                                    "leaf_count": 57,
                                    "leaf_index": 17
                                },
                                "left_child": {
                                    "default_left": true,
                                    "missing_type": "None",
                                    "split_gain": 12.022000312805176,
                                    "internal_value": -0.420295,
                                    "internal_count": 264,
                                    "decision_type": "<=",
                                    "split_index": 22,
                                    "threshold": 1.2875000000000003,
                                    "split_feature": 19,
                                    "right_child": {
                                        "leaf_value": 0.04232460815577489,
                                        "leaf_count": 27,
                                        "leaf_index": 23
                                    },
                                    "left_child": {
                                        "default_left": true,
                                        "missing_type": "None",
                                        "split_gain": 13.207599639892578,
                                        "internal_value": -0.56459,
                                        "internal_count": 237,
                                        "decision_type": "<=",
                                        "split_index": 23,
                                        "threshold": 0.3615000000000001,
                                        "split_feature": 3,
                                        "right_child": {
                                            "leaf_value": -0.03757153827180391,
                                            "leaf_count": 205,
                                            "leaf_index": 24
                                        },
                                        "left_child": {
                                            "leaf_value": 0.03163214553705176,
                                            "leaf_count": 32,
                                            "leaf_index": 7
                                        }
                                    }
                                }
                            }
                        },
                        "left_child": {
                            "default_left": true,
                            "missing_type": "None",
                            "split_gain": 21.627599716186523,
                            "internal_value": -0.715944,
                            "internal_count": 858,
                            "decision_type": "<=",
                            "split_index": 9,
                            "threshold": 0.7795000000000002,
                            "split_feature": 22,
                            "right_child": {
                                "default_left": true,
                                "missing_type": "None",
                                "split_gain": 13.937999725341797,
                                "internal_value": -0.845924,
                                "internal_count": 735,
                                "decision_type": "<=",
                                "split_index": 12,
                                "threshold": 0.6625000000000001,
                                "split_feature": 24,
                                "right_child": {
                                    "default_left": true,
                                    "missing_type": "None",
                                    "split_gain": 11.487799644470215,
                                    "internal_value": -0.913777,
                                    "internal_count": 693,
                                    "decision_type": "<=",
                                    "split_index": 27,
                                    "threshold": 0.9775000000000001,
                                    "split_feature": 24,
                                    "right_child": {
                                        "leaf_value": -0.03224714273452647,
                                        "leaf_count": 332,
                                        "leaf_index": 28
                                    },
                                    "left_child": {
                                        "default_left": true,
                                        "missing_type": "None",
                                        "split_gain": 15.534700393676758,
                                        "internal_value": -1.16102,
                                        "internal_count": 361,
                                        "decision_type": "<=",
                                        "split_index": 28,
                                        "threshold": 0.9935000000000002,
                                        "split_feature": 26,
                                        "right_child": {
                                            "leaf_value": -0.07969007707522499,
                                            "leaf_count": 173,
                                            "leaf_index": 29
                                        },
                                        "left_child": {
                                            "leaf_value": -0.038116619214668836,
                                            "leaf_count": 188,
                                            "leaf_index": 13
                                        }
                                    }
                                },
                                "left_child": {
                                    "leaf_value": 0.013736046313204065,
                                    "leaf_count": 42,
                                    "leaf_index": 10
                                }
                            },
                            "left_child": {
                                "leaf_value": 0.0030918733958899066,
                                "leaf_count": 123,
                                "leaf_index": 1
                            }
                        }
                    }
                },
                "left_child": {
                    "default_left": true,
                    "missing_type": "None",
                    "split_gain": 176.6840057373047,
                    "internal_value": 0.2795,
                    "internal_count": 3995,
                    "decision_type": "<=",
                    "split_index": 1,
                    "threshold": 0.6655000000000001,
                    "split_feature": 25,
                    "right_child": {
                        "default_left": true,
                        "missing_type": "None",
                        "split_gain": 89.61630249023438,
                        "internal_value": 0.572973,
                        "internal_count": 2694,
                        "decision_type": "<=",
                        "split_index": 2,
                        "threshold": 0.8055000000000001,
                        "split_feature": 26,
                        "right_child": {
                            "default_left": true,
                            "missing_type": "None",
                            "split_gain": 41.31679916381836,
                            "internal_value": 0.743995,
                            "internal_count": 2212,
                            "decision_type": "<=",
                            "split_index": 4,
                            "threshold": 1.0825000000000002,
                            "split_feature": 26,
                            "right_child": {
                                "default_left": true,
                                "missing_type": "None",
                                "split_gain": 15.446200370788574,
                                "internal_value": 0.285588,
                                "internal_count": 582,
                                "decision_type": "<=",
                                "split_index": 10,
                                "threshold": 2.4510000000000005,
                                "split_feature": 3,
                                "right_child": {
                                    "leaf_value": -0.06799734820041292,
                                    "leaf_count": 22,
                                    "leaf_index": 11
                                },
                                "left_child": {
                                    "default_left": true,
                                    "missing_type": "None",
                                    "split_gain": 11.77400016784668,
                                    "internal_value": 0.350415,
                                    "internal_count": 560,
                                    "decision_type": "<=",
                                    "split_index": 25,
                                    "threshold": 1.8455000000000001,
                                    "split_feature": 9,
                                    "right_child": {
                                        "leaf_value": 0.06250578394411599,
                                        "leaf_count": 53,
                                        "leaf_index": 26
                                    },
                                    "left_child": {
                                        "leaf_value": 0.01282376516790686,
                                        "leaf_count": 507,
                                        "leaf_index": 5
                                    }
                                }
                            },
                            "left_child": {
                                "default_left": true,
                                "missing_type": "None",
                                "split_gain": 23.739700317382812,
                                "internal_value": 0.90806,
                                "internal_count": 1630,
                                "decision_type": "<=",
                                "split_index": 8,
                                "threshold": 0.8695000000000002,
                                "split_feature": 5,
                                "right_child": {
                                    "leaf_value": 0.05714537279350665,
                                    "leaf_count": 841,
                                    "leaf_index": 9
                                },
                                "left_child": {
                                    "default_left": true,
                                    "missing_type": "None",
                                    "split_gain": 13.601400375366211,
                                    "internal_value": 0.658198,
                                    "internal_count": 789,
                                    "decision_type": "<=",
                                    "split_index": 14,
                                    "threshold": 1.2475000000000003,
                                    "split_feature": 9,
                                    "right_child": {
                                        "leaf_value": 0.06894429489909389,
                                        "leaf_count": 93,
                                        "leaf_index": 15
                                    },
                                    "left_child": {
                                        "default_left": true,
                                        "missing_type": "None",
                                        "split_gain": 12.924099922180176,
                                        "internal_value": 0.561917,
                                        "internal_count": 696,
                                        "decision_type": "<=",
                                        "split_index": 17,
                                        "threshold": 1.1435000000000002,
                                        "split_feature": 3,
                                        "right_child": {
                                            "leaf_value": 0.005878168168179054,
                                            "leaf_count": 191,
                                            "leaf_index": 18
                                        },
                                        "left_child": {
                                            "default_left": true,
                                            "missing_type": "None",
                                            "split_gain": 12.088899612426758,
                                            "internal_value": 0.730121,
                                            "internal_count": 505,
                                            "decision_type": "<=",
                                            "split_index": 19,
                                            "threshold": 0.9845000000000002,
                                            "split_feature": 25,
                                            "right_child": {
                                                "leaf_value": -0.0037949488266837343,
                                                "leaf_count": 65,
                                                "leaf_index": 20
                                            },
                                            "left_child": {
                                                "default_left": true,
                                                "missing_type": "None",
                                                "split_gain": 11.820099830627441,
                                                "internal_value": 0.849691,
                                                "internal_count": 440,
                                                "decision_type": "<=",
                                                "split_index": 24,
                                                "threshold": 0.8435000000000001,
                                                "split_feature": 26,
                                                "right_child": {
                                                    "leaf_value": 0.05006513257582589,
                                                    "leaf_count": 363,
                                                    "leaf_index": 25
                                                },
                                                "left_child": {
                                                    "leaf_value": 0.006797326449375746,
                                                    "leaf_count": 77,
                                                    "leaf_index": 3
                                                }
                                            }
                                        }
                                    }
                                }
                            }
                        },
                        "left_child": {
                            "default_left": true,
                            "missing_type": "None",
                            "split_gain": 49.0817985534668,
                            "internal_value": -0.209851,
                            "internal_count": 482,
                            "decision_type": "<=",
                            "split_index": 3,
                            "threshold": 0.8205000000000001,
                            "split_feature": 5,
                            "right_child": {
                                "default_left": true,
                                "missing_type": "None",
                                "split_gain": 10.652999877929688,
                                "internal_value": 0.662249,
                                "internal_count": 169,
                                "decision_type": "<=",
                                "split_index": 29,
                                "threshold": -0.5464999999999999,
                                "split_feature": 6,
                                "right_child": {
                                    "leaf_value": 0.04851613870015829,
                                    "leaf_count": 123,
                                    "leaf_index": 30
                                },
                                "left_child": {
                                    "leaf_value": -0.008085309840076358,
                                    "leaf_count": 46,
                                    "leaf_index": 4
                                }
                            },
                            "left_child": {
                                "default_left": true,
                                "missing_type": "None",
                                "split_gain": 11.559499740600586,
                                "internal_value": -0.678783,
                                "internal_count": 313,
                                "decision_type": "<=",
                                "split_index": 26,
                                "threshold": 0.8125000000000001,
                                "split_feature": 14,
                                "right_child": {
                                    "leaf_value": 0.004781013470717321,
                                    "leaf_count": 62,
                                    "leaf_index": 27
                                },
                                "left_child": {
                                    "leaf_value": -0.04350162778586604,
                                    "leaf_count": 251,
                                    "leaf_index": 2
                                }
                            }
                        }
                    },
                    "left_child": {
                        "default_left": true,
                        "missing_type": "None",
                        "split_gain": 32.87540054321289,
                        "internal_value": -0.326434,
                        "internal_count": 1301,
                        "decision_type": "<=",
                        "split_index": 7,
                        "threshold": 1.1375000000000002,
                        "split_feature": 9,
                        "right_child": {
                            "default_left": true,
                            "missing_type": "None",
                            "split_gain": 12.683799743652344,
                            "internal_value": 0.352415,
                            "internal_count": 235,
                            "decision_type": "<=",
                            "split_index": 18,
                            "threshold": 1.2315000000000003,
                            "split_feature": 19,
                            "right_child": {
                                "leaf_value": -0.03998296090879053,
                                "leaf_count": 33,
                                "leaf_index": 19
                            },
                            "left_child": {
                                "leaf_value": 0.027035079205045068,
                                "leaf_count": 202,
                                "leaf_index": 8
                            }
                        },
                        "left_child": {
                            "default_left": true,
                            "missing_type": "None",
                            "split_gain": 15.32759952545166,
                            "internal_value": -0.47581,
                            "internal_count": 1066,
                            "decision_type": "<=",
                            "split_index": 11,
                            "threshold": 1.2955000000000003,
                            "split_feature": 13,
                            "right_child": {
                                "leaf_value": 0.011290446351300587,
                                "leaf_count": 112,
                                "leaf_index": 12
                            },
                            "left_child": {
                                "default_left": true,
                                "missing_type": "None",
                                "split_gain": 13.917499542236328,
                                "internal_value": -0.558021,
                                "internal_count": 954,
                                "decision_type": "<=",
                                "split_index": 13,
                                "threshold": 0.7185000000000001,
                                "split_feature": 24,
                                "right_child": {
                                    "default_left": true,
                                    "missing_type": "None",
                                    "split_gain": 12.07610034942627,
                                    "internal_value": -0.724244,
                                    "internal_count": 648,
                                    "decision_type": "<=",
                                    "split_index": 20,
                                    "threshold": 0.7335000000000002,
                                    "split_feature": 26,
                                    "right_child": {
                                        "default_left": true,
                                        "missing_type": "None",
                                        "split_gain": 12.026700019836426,
                                        "internal_value": -0.550063,
                                        "internal_count": 461,
                                        "decision_type": "<=",
                                        "split_index": 21,
                                        "threshold": 0.8235000000000001,
                                        "split_feature": 22,
                                        "right_child": {
                                            "leaf_value": -0.03671849001139318,
                                            "leaf_count": 348,
                                            "leaf_index": 22
                                        },
                                        "left_child": {
                                            "leaf_value": 0.00088775000323056,
                                            "leaf_count": 113,
                                            "leaf_index": 21
                                        }
                                    },
                                    "left_child": {
                                        "leaf_value": -0.05766818631609604,
                                        "leaf_count": 187,
                                        "leaf_index": 14
                                    }
                                },
                                "left_child": {
                                    "leaf_value": -0.010300734056099013,
                                    "leaf_count": 306,
                                    "leaf_index": 0
                                }
                            }
                        }
                    }
                }
            }
        },
        {
            "num_cat": 0,
            "tree_index": 2,
            "num_leaves": 31,
            "shrinkage": 0.05,
            "tree_structure": {
                "default_left": true,
                "missing_type": "None",
                "split_gain": 159.6510009765625,
                "internal_value": 0,
                "internal_count": 5600,
                "decision_type": "<=",
                "split_index": 0,
                "threshold": 0.9045000000000002,
                "split_feature": 27,
                "right_child": {
                    "default_left": true,
                    "missing_type": "None",
                    "split_gain": 76.71510314941406,
                    "internal_value": -0.37057,
                    "internal_count": 2438,
                    "decision_type": "<=",
                    "split_index": 2,
                    "threshold": 1.0465000000000002,
                    "split_feature": 22,
                    "right_child": {
                        "default_left": true,
                        "missing_type": "None",
                        "split_gain": 17.420900344848633,
                        "internal_value": 0.0429447,
                        "internal_count": 1037,
                        "decision_type": "<=",
                        "split_index": 9,
                        "threshold": 1.1225000000000003,
                        "split_feature": 27,
                        "right_child": {
                            "default_left": true,
                            "missing_type": "None",
                            "split_gain": 14.729100227355957,
                            "internal_value": -0.184866,
                            "internal_count": 586,
                            "decision_type": "<=",
                            "split_index": 11,
                            "threshold": 2.4510000000000005,
                            "split_feature": 3,
                            "right_child": {
                                "leaf_value": -0.07316392558836865,
                                "leaf_count": 34,
                                "leaf_index": 12
                            },
                            "left_child": {
                                "default_left": true,
                                "missing_type": "None",
                                "split_gain": 11.678799629211426,
                                "internal_value": -0.105885,
                                "internal_count": 552,
                                "decision_type": "<=",
                                "split_index": 17,
                                "threshold": 1.0000000180025095e-35,
                                "split_feature": 8,
                                "right_child": {
                                    "default_left": true,
                                    "missing_type": "None",
                                    "split_gain": 10.735799789428711,
                                    "internal_value": -0.407942,
                                    "internal_count": 266,
                                    "decision_type": "<=",
                                    "split_index": 23,
                                    "threshold": 1.3095000000000003,
                                    "split_feature": 24,
                                    "right_child": {
                                        "leaf_value": -0.0014381822119344694,
                                        "leaf_count": 141,
                                        "leaf_index": 24
                                    },
                                    "left_child": {
                                        "default_left": true,
                                        "missing_type": "None",
                                        "split_gain": 18.466999053955078,
                                        "internal_value": -0.835216,
                                        "internal_count": 125,
                                        "decision_type": "<=",
                                        "split_index": 24,
                                        "threshold": 0.8055000000000001,
                                        "split_feature": 24,
                                        "right_child": {
                                            "leaf_value": -0.06147164847261946,
                                            "leaf_count": 99,
                                            "leaf_index": 25
                                        },
                                        "left_child": {
                                            "leaf_value": 0.03341576596060593,
                                            "leaf_count": 26,
                                            "leaf_index": 18
                                        }
                                    }
                                },
                                "left_child": {
                                    "default_left": true,
                                    "missing_type": "None",
                                    "split_gain": 15.007100105285645,
                                    "internal_value": 0.175538,
                                    "internal_count": 286,
                                    "decision_type": "<=",
                                    "split_index": 18,
                                    "threshold": 1.7625000000000002,
                                    "split_feature": 5,
                                    "right_child": {
                                        "leaf_value": 0.048406208810428945,
                                        "leaf_count": 72,
                                        "leaf_index": 19
                                    },
                                    "left_child": {
                                        "default_left": true,
                                        "missing_type": "None",
                                        "split_gain": 12.763999938964844,
                                        "internal_value": -0.0906795,
                                        "internal_count": 214,
                                        "decision_type": "<=",
                                        "split_index": 19,
                                        "threshold": 0.9875000000000002,
                                        "split_feature": 23,
                                        "right_child": {
                                            "leaf_value": -0.024019755895592822,
                                            "leaf_count": 131,
                                            "leaf_index": 20
                                        },
                                        "left_child": {
                                            "leaf_value": 0.026224436034278528,
                                            "leaf_count": 83,
                                            "leaf_index": 10
                                        }
                                    }
                                }
                            }
                        },
                        "left_child": {
                            "default_left": true,
                            "missing_type": "None",
                            "split_gain": 10.453700065612793,
                            "internal_value": 0.339353,
                            "internal_count": 451,
                            "decision_type": "<=",
                            "split_index": 26,
                            "threshold": 1.6515000000000002,
                            "split_feature": 5,
                            "right_child": {
                                "leaf_value": 0.07753416021135058,
                                "leaf_count": 27,
                                "leaf_index": 27
                            },
                            "left_child": {
                                "default_left": true,
                                "missing_type": "None",
                                "split_gain": 10.260000228881836,
                                "internal_value": 0.26238,
                                "internal_count": 424,
                                "decision_type": "<=",
                                "split_index": 27,
                                "threshold": -1.8214999999999997,
                                "split_feature": 6,
                                "right_child": {
                                    "default_left": true,
                                    "missing_type": "None",
                                    "split_gain": 10.319999694824219,
                                    "internal_value": 0.331802,
                                    "internal_count": 404,
                                    "decision_type": "<=",
                                    "split_index": 28,
                                    "threshold": 1.3790000000000002,
                                    "split_feature": 6,
                                    "right_child": {
                                        "leaf_value": -0.03627620401473077,
                                        "leaf_count": 34,
                                        "leaf_index": 29
                                    },
                                    "left_child": {
                                        "leaf_value": 0.021448774119830268,
                                        "leaf_count": 370,
                                        "leaf_index": 28
                                    }
                                },
                                "left_child": {
                                    "leaf_value": -0.05697873445614221,
                                    "leaf_count": 20,
                                    "leaf_index": 3
                                }
                            }
                        }
                    },
                    "left_child": {
                        "default_left": true,
                        "missing_type": "None",
                        "split_gain": 107.13600158691406,
                        "internal_value": -0.676145,
                        "internal_count": 1401,
                        "decision_type": "<=",
                        "split_index": 3,
                        "threshold": 1.0755000000000001,
                        "split_feature": 24,
                        "right_child": {
                            "default_left": true,
                            "missing_type": "None",
                            "split_gain": 20.433300018310547,
                            "internal_value": -0.158268,
                            "internal_count": 748,
                            "decision_type": "<=",
                            "split_index": 7,
                            "threshold": 0.7625000000000001,
                            "split_feature": 22,
                            "right_child": {
                                "default_left": true,
                                "missing_type": "None",
                                "split_gain": 11.626700401306152,
                                "internal_value": -0.294202,
                                "internal_count": 640,
                                "decision_type": "<=",
                                "split_index": 20,
                                "threshold": 1.6295000000000002,
                                "split_feature": 3,
                                "right_child": {
                                    "default_left": true,
                                    "missing_type": "None",
                                    "split_gain": 12.0024995803833,
                                    "internal_value": -0.769524,
                                    "internal_count": 156,
                                    "decision_type": "<=",
                                    "split_index": 21,
                                    "threshold": 0.5235000000000002,
                                    "split_feature": 2,
                                    "right_child": {
                                        "leaf_value": -0.0755916881783845,
                                        "leaf_count": 56,
                                        "leaf_index": 22
                                    },
                                    "left_child": {
                                        "leaf_value": -0.01769559522301732,
                                        "leaf_count": 100,
                                        "leaf_index": 21
                                    }
                                },
                                "left_child": {
                                    "leaf_value": -0.007039271027358638,
                                    "leaf_count": 484,
                                    "leaf_index": 8
                                }
                            },
                            "left_child": {
                                "leaf_value": 0.032429175319730594,
                                "leaf_count": 108,
                                "leaf_index": 4
                            }
                        },
                        "left_child": {
                            "default_left": true,
                            "missing_type": "None",
                            "split_gain": 14.503299713134766,
                            "internal_value": -1.2687,
                            "internal_count": 653,
                            "decision_type": "<=",
                            "split_index": 12,
                            "threshold": 1.0885000000000002,
                            "split_feature": 27,
                            "right_child": {
                                "leaf_value": -0.08255849708085812,
                                "leaf_count": 247,
                                "leaf_index": 13
                            },
                            "left_child": {
                                "leaf_value": -0.05179036936618299,
                                "leaf_count": 406,
                                "leaf_index": 1
                            }
                        }
                    }
                },
                "left_child": {
                    "default_left": true,
                    "missing_type": "None",
                    "split_gain": 173.33200073242188,
                    "internal_value": 0.312313,
                    "internal_count": 3162,
                    "decision_type": "<=",
                    "split_index": 1,
                    "threshold": 0.8115000000000001,
                    "split_feature": 26,
                    "right_child": {
                        "default_left": true,
                        "missing_type": "None",
                        "split_gain": 39.52510070800781,
                        "internal_value": 0.675454,
                        "internal_count": 1984,
                        "decision_type": "<=",
                        "split_index": 5,
                        "threshold": 0.9005000000000001,
                        "split_feature": 5,
                        "right_child": {
                            "leaf_value": 0.049000849466304994,
                            "leaf_count": 923,
                            "leaf_index": 6
                        },
                        "left_child": {
                            "default_left": true,
                            "missing_type": "None",
                            "split_gain": 21.92329978942871,
                            "internal_value": 0.411413,
                            "internal_count": 1061,
                            "decision_type": "<=",
                            "split_index": 6,
                            "threshold": 1.0605000000000002,
                            "split_feature": 22,
                            "right_child": {
                                "leaf_value": 0.05188989333995982,
                                "leaf_count": 186,
                                "leaf_index": 7
                            },
                            "left_child": {
                                "default_left": true,
                                "missing_type": "None",
                                "split_gain": 18.226499557495117,
                                "internal_value": 0.278467,
                                "internal_count": 875,
                                "decision_type": "<=",
                                "split_index": 8,
                                "threshold": 0.8405000000000001,
                                "split_feature": 27,
                                "right_child": {
                                    "default_left": true,
                                    "missing_type": "None",
                                    "split_gain": 17.263999938964844,
                                    "internal_value": -0.184474,
                                    "internal_count": 246,
                                    "decision_type": "<=",
                                    "split_index": 10,
                                    "threshold": 0.8985000000000002,
                                    "split_feature": 26,
                                    "right_child": {
                                        "default_left": true,
                                        "missing_type": "None",
                                        "split_gain": 12.519000053405762,
                                        "internal_value": 0.134507,
                                        "internal_count": 181,
                                        "decision_type": "<=",
                                        "split_index": 15,
                                        "threshold": 1.0405000000000002,
                                        "split_feature": 24,
                                        "right_child": {
                                            "leaf_value": 0.03576066684218174,
                                            "leaf_count": 82,
                                            "leaf_index": 16
                                        },
                                        "left_child": {
                                            "leaf_value": -0.017265484990750087,
                                            "leaf_count": 99,
                                            "leaf_index": 11
                                        }
                                    },
                                    "left_child": {
                                        "leaf_value": -0.05350408819922112,
                                        "leaf_count": 65,
                                        "leaf_index": 9
                                    }
                                },
                                "left_child": {
                                    "default_left": true,
                                    "missing_type": "None",
                                    "split_gain": 13.598699569702148,
                                    "internal_value": 0.459758,
                                    "internal_count": 629,
                                    "decision_type": "<=",
                                    "split_index": 13,
                                    "threshold": 0.8605000000000002,
                                    "split_feature": 26,
                                    "right_child": {
                                        "default_left": true,
                                        "missing_type": "None",
                                        "split_gain": 10.985699653625488,
                                        "internal_value": 0.695078,
                                        "internal_count": 385,
                                        "decision_type": "<=",
                                        "split_index": 22,
                                        "threshold": 0.7045000000000001,
                                        "split_feature": 0,
                                        "right_child": {
                                            "leaf_value": 0.046602766207869746,
                                            "leaf_count": 259,
                                            "leaf_index": 23
                                        },
                                        "left_child": {
                                            "leaf_value": 0.010462531936424057,
                                            "leaf_count": 126,
                                            "leaf_index": 14
                                        }
                                    },
                                    "left_child": {
                                        "leaf_value": 0.004472817761251297,
                                        "leaf_count": 244,
                                        "leaf_index": 2
                                    }
                                }
                            }
                        }
                    },
                    "left_child": {
                        "default_left": true,
                        "missing_type": "None",
                        "split_gain": 44.12229919433594,
                        "internal_value": -0.295682,
                        "internal_count": 1178,
                        "decision_type": "<=",
                        "split_index": 4,
                        "threshold": 0.8205000000000001,
                        "split_feature": 5,
                        "right_child": {
                            "default_left": true,
                            "missing_type": "None",
                            "split_gain": 12.12559986114502,
                            "internal_value": 0.253417,
                            "internal_count": 393,
                            "decision_type": "<=",
                            "split_index": 16,
                            "threshold": 0.8065000000000001,
                            "split_feature": 27,
                            "right_child": {
                                "leaf_value": -0.027991901020518514,
                                "leaf_count": 62,
                                "leaf_index": 17
                            },
                            "left_child": {
                                "default_left": true,
                                "missing_type": "None",
                                "split_gain": 10.714599609375,
                                "internal_value": 0.406094,
                                "internal_count": 331,
                                "decision_type": "<=",
                                "split_index": 25,
                                "threshold": -1.5134999999999998,
                                "split_feature": 2,
                                "right_child": {
                                    "leaf_value": 0.025007519941969515,
                                    "leaf_count": 310,
                                    "leaf_index": 26
                                },
                                "left_child": {
                                    "leaf_value": -0.04897015016333461,
                                    "leaf_count": 21,
                                    "leaf_index": 5
                                }
                            }
                        },
                        "left_child": {
                            "default_left": true,
                            "missing_type": "None",
                            "split_gain": 12.656700134277344,
                            "internal_value": -0.569404,
                            "internal_count": 785,
                            "decision_type": "<=",
                            "split_index": 14,
                            "threshold": 1.6475000000000002,
                            "split_feature": 0,
                            "right_child": {
                                "leaf_value": 0.019253110144024338,
                                "leaf_count": 52,
                                "leaf_index": 15
                            },
                            "left_child": {
                                "default_left": true,
                                "missing_type": "None",
                                "split_gain": 9.446089744567871,
                                "internal_value": -0.637092,
                                "internal_count": 733,
                                "decision_type": "<=",
                                "split_index": 29,
                                "threshold": 1.1935000000000002,
                                "split_feature": 9,
                                "right_child": {
                                    "leaf_value": 0.02423901688029484,
                                    "leaf_count": 29,
                                    "leaf_index": 30
                                },
                                "left_child": {
                                    "leaf_value": -0.03415599501638049,
                                    "leaf_count": 704,
                                    "leaf_index": 0
                                }
                            }
                        }
                    }
                }
            }
        },
        {
            "num_cat": 0,
            "tree_index": 3,
            "num_leaves": 31,
            "shrinkage": 0.05,
            "tree_structure": {
                "default_left": true,
                "missing_type": "None",
                "split_gain": 214.03900146484375,
                "internal_value": 0,
                "internal_count": 5600,
                "decision_type": "<=",
                "split_index": 0,
                "threshold": 1.2450000000000003,
                "split_feature": 25,
                "right_child": {
                    "default_left": true,
                    "missing_type": "None",
                    "split_gain": 21.115100860595703,
                    "internal_value": -0.766035,
                    "internal_count": 1126,
                    "decision_type": "<=",
                    "split_index": 8,
                    "threshold": 1.8535000000000004,
                    "split_feature": 3,
                    "right_child": {
                        "leaf_value": -0.08687802908552661,
                        "leaf_count": 83,
                        "leaf_index": 9
                    },
                    "left_child": {
                        "default_left": true,
                        "missing_type": "None",
                        "split_gain": 17.150100708007812,
                        "internal_value": -0.688642,
                        "internal_count": 1043,
                        "decision_type": "<=",
                        "split_index": 11,
                        "threshold": 1.3235000000000003,
                        "split_feature": 24,
                        "right_child": {
                            "default_left": true,
                            "missing_type": "None",
                            "split_gain": 15.38290023803711,
                            "internal_value": -0.19494,
                            "internal_count": 222,
                            "decision_type": "<=",
                            "split_index": 16,
                            "threshold": 1.6815000000000002,
                            "split_feature": 17,
                            "right_child": {
                                "leaf_value": 0.04918061225282081,
                                "leaf_count": 37,
                                "leaf_index": 17
                            },
                            "left_child": {
                                "leaf_value": -0.021531212566068155,
                                "leaf_count": 185,
                                "leaf_index": 12
                            }
                        },
                        "left_child": {
                            "default_left": true,
                            "missing_type": "None",
                            "split_gain": 29.59440040588379,
                            "internal_value": -0.822194,
                            "internal_count": 821,
                            "decision_type": "<=",
                            "split_index": 12,
                            "threshold": 1.0245000000000002,
                            "split_feature": 27,
                            "right_child": {
                                "leaf_value": -0.06434412752900669,
                                "leaf_count": 329,
                                "leaf_index": 13
                            },
                            "left_child": {
                                "default_left": true,
                                "missing_type": "None",
                                "split_gain": 18.85689926147461,
                                "internal_value": -0.511112,
                                "internal_count": 492,
                                "decision_type": "<=",
                                "split_index": 13,
                                "threshold": -1.5714999999999997,
                                "split_feature": 15,
                                "right_child": {
                                    "default_left": true,
                                    "missing_type": "None",
                                    "split_gain": 14.384099960327148,
                                    "internal_value": -0.593887,
                                    "internal_count": 471,
                                    "decision_type": "<=",
                                    "split_index": 22,
                                    "threshold": 1.1135000000000004,
                                    "split_feature": 22,
                                    "right_child": {
                                        "leaf_value": 0.018028174110985395,
                                        "leaf_count": 56,
                                        "leaf_index": 23
                                    },
                                    "left_child": {
                                        "leaf_value": -0.036112837690524834,
                                        "leaf_count": 415,
                                        "leaf_index": 14
                                    }
                                },
                                "left_child": {
                                    "leaf_value": 0.06732756705191072,
                                    "leaf_count": 21,
                                    "leaf_index": 1
                                }
                            }
                        }
                    }
                },
                "left_child": {
                    "default_left": true,
                    "missing_type": "None",
                    "split_gain": 127.28900146484375,
                    "internal_value": 0.21125,
                    "internal_count": 4474,
                    "decision_type": "<=",
                    "split_index": 1,
                    "threshold": 0.5925000000000001,
                    "split_feature": 25,
                    "right_child": {
                        "default_left": true,
                        "missing_type": "None",
                        "split_gain": 75.0647964477539,
                        "internal_value": 0.391624,
                        "internal_count": 3491,
                        "decision_type": "<=",
                        "split_index": 2,
                        "threshold": 0.8765000000000001,
                        "split_feature": 5,
                        "right_child": {
                            "default_left": true,
                            "missing_type": "None",
                            "split_gain": 89.79830169677734,
                            "internal_value": 0.692289,
                            "internal_count": 1716,
                            "decision_type": "<=",
                            "split_index": 3,
                            "threshold": 0.9025000000000002,
                            "split_feature": 27,
                            "right_child": {
                                "default_left": true,
                                "missing_type": "None",
                                "split_gain": 28.470300674438477,
                                "internal_value": 0.217663,
                                "internal_count": 827,
                                "decision_type": "<=",
                                "split_index": 7,
                                "threshold": 1.7305000000000004,
                                "split_feature": 0,
                                "right_child": {
                                    "default_left": true,
                                    "missing_type": "None",
                                    "split_gain": 16.017499923706055,
                                    "internal_value": -0.591865,
                                    "internal_count": 144,
                                    "decision_type": "<=",
                                    "split_index": 15,
                                    "threshold": 1.1275000000000002,
                                    "split_feature": 6,
                                    "right_child": {
                                        "leaf_value": 0.05370827311217738,
                                        "leaf_count": 20,
                                        "leaf_index": 16
                                    },
                                    "left_child": {
                                        "default_left": true,
                                        "missing_type": "None",
                                        "split_gain": 14.138799667358398,
                                        "internal_value": -0.859986,
                                        "internal_count": 124,
                                        "decision_type": "<=",
                                        "split_index": 23,
                                        "threshold": 1.0895000000000004,
                                        "split_feature": 24,
                                        "right_child": {
                                            "leaf_value": -0.008535357073457612,
                                            "leaf_count": 61,
                                            "leaf_index": 24
                                        },
                                        "left_child": {
                                            "leaf_value": -0.0762049779108417,
                                            "leaf_count": 63,
                                            "leaf_index": 8
                                        }
                                    }
                                },
                                "left_child": {
                                    "default_left": true,
                                    "missing_type": "None",
                                    "split_gain": 18.510900497436523,
                                    "internal_value": 0.388928,
                                    "internal_count": 683,
                                    "decision_type": "<=",
                                    "split_index": 9,
                                    "threshold": 2.031,
                                    "split_feature": 3,
                                    "right_child": {
                                        "leaf_value": -0.027525204923811993,
                                        "leaf_count": 75,
                                        "leaf_index": 10
                                    },
                                    "left_child": {
                                        "default_left": true,
                                        "missing_type": "None",
                                        "split_gain": 16.840099334716797,
                                        "internal_value": 0.505185,
                                        "internal_count": 608,
                                        "decision_type": "<=",
                                        "split_index": 14,
                                        "threshold": 0.9925,
                                        "split_feature": 25,
                                        "right_child": {
                                            "leaf_value": 0.0010081991369034508,
                                            "leaf_count": 195,
                                            "leaf_index": 15
                                        },
                                        "left_child": {
                                            "leaf_value": 0.03676942750097848,
                                            "leaf_count": 413,
                                            "leaf_index": 4
                                        }
                                    }
                                }
                            },
                            "left_child": {
                                "default_left": true,
                                "missing_type": "None",
                                "split_gain": 13.226300239562988,
                                "internal_value": 1.13902,
                                "internal_count": 889,
                                "decision_type": "<=",
                                "split_index": 24,
                                "threshold": 0.8565000000000002,
                                "split_feature": 26,
                                "right_child": {
                                    "leaf_value": 0.0656137190872182,
                                    "leaf_count": 596,
                                    "leaf_index": 25
                                },
                                "left_child": {
                                    "default_left": true,
                                    "missing_type": "None",
                                    "split_gain": 15.933199882507324,
                                    "internal_value": 0.789112,
                                    "internal_count": 293,
                                    "decision_type": "<=",
                                    "split_index": 25,
                                    "threshold": 0.9455000000000001,
                                    "split_feature": 25,
                                    "right_child": {
                                        "leaf_value": -0.011575603885787758,
                                        "leaf_count": 51,
                                        "leaf_index": 26
                                    },
                                    "left_child": {
                                        "leaf_value": 0.05025890850804274,
                                        "leaf_count": 242,
                                        "leaf_index": 3
                                    }
                                }
                            }
                        },
                        "left_child": {
                            "default_left": true,
                            "missing_type": "None",
                            "split_gain": 65.25769805908203,
                            "internal_value": 0.102792,
                            "internal_count": 1775,
                            "decision_type": "<=",
                            "split_index": 4,
                            "threshold": 0.7765000000000001,
                            "split_feature": 26,
                            "right_child": {
                                "default_left": true,
                                "missing_type": "None",
                                "split_gain": 58.82550048828125,
                                "internal_value": 0.301926,
                                "internal_count": 1402,
                                "decision_type": "<=",
                                "split_index": 5,
                                "threshold": 0.9655000000000001,
                                "split_feature": 25,
                                "right_child": {
                                    "default_left": true,
                                    "missing_type": "None",
                                    "split_gain": 14.998299598693848,
                                    "internal_value": -0.352583,
                                    "internal_count": 395,
                                    "decision_type": "<=",
                                    "split_index": 17,
                                    "threshold": 1.0415000000000003,
                                    "split_feature": 9,
                                    "right_child": {
                                        "leaf_value": 0.014820358184345026,
                                        "leaf_count": 105,
                                        "leaf_index": 18
                                    },
                                    "left_child": {
                                        "leaf_value": -0.029367002834117247,
                                        "leaf_count": 290,
                                        "leaf_index": 6
                                    }
                                },
                                "left_child": {
                                    "default_left": true,
                                    "missing_type": "None",
                                    "split_gain": 34.0713996887207,
                                    "internal_value": 0.560404,
                                    "internal_count": 1007,
                                    "decision_type": "<=",
                                    "split_index": 6,
                                    "threshold": 0.8575,
                                    "split_feature": 27,
                                    "right_child": {
                                        "default_left": true,
                                        "missing_type": "None",
                                        "split_gain": 12.619400024414062,
                                        "internal_value": 0.147835,
                                        "internal_count": 447,
                                        "decision_type": "<=",
                                        "split_index": 26,
                                        "threshold": 1.2680000000000005,
                                        "split_feature": 9,
                                        "right_child": {
                                            "leaf_value": 0.04946410316157826,
                                            "leaf_count": 62,
                                            "leaf_index": 27
                                        },
                                        "left_child": {
                                            "default_left": true,
                                            "missing_type": "None",
                                            "split_gain": 12.267200469970703,
                                            "internal_value": 0.012748,
                                            "internal_count": 385,
                                            "decision_type": "<=",
                                            "split_index": 28,
                                            "threshold": 1.7720000000000002,
                                            "split_feature": 1,
                                            "right_child": {
                                                "leaf_value": -0.07028350502438806,
                                                "leaf_count": 23,
                                                "leaf_index": 29
                                            },
                                            "left_child": {
                                                "leaf_value": 0.005157775937748892,
                                                "leaf_count": 362,
                                                "leaf_index": 7
                                            }
                                        }
                                    },
                                    "left_child": {
                                        "leaf_value": 0.04458500618102909,
                                        "leaf_count": 560,
                                        "leaf_index": 5
                                    }
                                }
                            },
                            "left_child": {
                                "default_left": true,
                                "missing_type": "None",
                                "split_gain": 17.95330047607422,
                                "internal_value": -0.64053,
                                "internal_count": 373,
                                "decision_type": "<=",
                                "split_index": 10,
                                "threshold": 0.6415000000000001,
                                "split_feature": 24,
                                "right_child": {
                                    "leaf_value": -0.0428366543858682,
                                    "leaf_count": 300,
                                    "leaf_index": 11
                                },
                                "left_child": {
                                    "leaf_value": 0.012545078600408033,
                                    "leaf_count": 73,
                                    "leaf_index": 2
                                }
                            }
                        }
                    },
                    "left_child": {
                        "default_left": true,
                        "missing_type": "None",
                        "split_gain": 14.63479995727539,
